{
    "sizes": [
        2,
        8,
        4,
        2,
        1
    ],
    "layers_types": [
        "InputLayer",
        "DenseLayer",
        "DenseLayer",
        "DenseLayer",
        "OutputLayer"
    ],
    "activation_functions": [
        "leaky_relu",
        "sigmoid"
    ],
    "cost_function": "cross_entropy",
    "threshold": 1.0,
    "dropout_rate": 0.25,
    "batch_norm": true,
    "gradient_clip": 1.0,
    "weights": [
        [
            [],
            []
        ],
        [
            [
                -1.7116291368897503,
                -1.7115191305783874
            ],
            [
                -0.1812700505645789,
                -0.2611558626513816
            ],
            [
                1.2921873836398339,
                1.1227798507700377
            ],
            [
                -1.7590875635429275,
                -0.46693382636821035
            ],
            [
                -0.5855967411034443,
                -1.0850934386039384
            ],
            [
                -2.884359643318587,
                2.562974065289309
            ],
            [
                -0.0421916369430115,
                -1.5731959945988987
            ],
            [
                4.037587443879214,
                -4.291989712765601
            ]
        ],
        [
            [
                2.491063406990164,
                -0.9892040590778592,
                0.7162143483476943,
                -0.011858194597397119,
                -0.28744365919000725,
                -4.907850604397761,
                0.4606928151428558,
                -4.093749232883639
            ],
            [
                2.261163166929801,
                -1.210398506018603,
                0.7571087827500996,
                -0.733268250324437,
                0.2082007862285429,
                -4.671437542355062,
                0.5714508466016299,
                -3.9072590076042952
            ],
            [
                -2.3294205693581054,
                -0.18457917364902937,
                -0.9283662811058583,
                0.8631419781058662,
                0.21340963045832767,
                5.731414460321952,
                0.3669113584406763,
                4.299041728114945
            ],
            [
                -1.27655299594888,
                0.8577476337495963,
                -0.02255578623079208,
                -0.22747198968752738,
                -0.48152041556093556,
                3.8824803231413343,
                -0.5596934104894682,
                3.57069053723406
            ]
        ],
        [
            [
                3.2868752974692317,
                3.699011917320691,
                -2.1805807044309358,
                2.0983472834774
            ],
            [
                -1.8454397700805996,
                -2.4473091837811056,
                3.2145773377513747,
                1.7840264740192584
            ]
        ],
        [
            [
                -3.5432094857102667,
                1.6794893650262248
            ]
        ]
    ],
    "biases": [
        [
            0,
            0
        ],
        [
            1.7106314565409646,
            1.4654319417210058,
            -1.1232810437635172,
            -0.001664525513830106,
            -0.4558974877144794,
            0.32039361125122356,
            -1.8840786875552642,
            0.25377975976334344
        ],
        [
            -0.7556732991251037,
            -0.6937973130533994,
            -0.4362949917699401,
            1.2718199021344092
        ],
        [
            0.07779629704229052,
            1.318033512537644
        ],
        [
            -1.4075014377867925
        ]
    ]
}